digraph Tree {
node [shape=box, style="filled, rounded", color="black", fontname=helvetica] ;
edge [fontname=helvetica] ;
0 [label="petal length (cm) <= 2.6\ngini = 0.66\nsamples = 91\nvalue = [47, 57, 46]\nclass = versicolor", fillcolor="#ecfcf3"] ;
1 [label="gini = 0.0\nsamples = 30\nvalue = [47, 0, 0]\nclass = setosa", fillcolor="#e58139"] ;
0 -> 1 [labeldistance=2.5, labelangle=45, headlabel="True"] ;
2 [label="petal length (cm) <= 4.75\ngini = 0.49\nsamples = 61\nvalue = [0, 57, 46]\nclass = versicolor", fillcolor="#d9fae7"] ;
0 -> 2 [labeldistance=2.5, labelangle=-45, headlabel="False"] ;
3 [label="petal width (cm) <= 1.65\ngini = 0.04\nsamples = 28\nvalue = [0, 51, 1]\nclass = versicolor", fillcolor="#3de683"] ;
2 -> 3 ;
4 [label="gini = 0.0\nsamples = 27\nvalue = [0, 51, 0]\nclass = versicolor", fillcolor="#39e581"] ;
3 -> 4 ;
5 [label="gini = 0.0\nsamples = 1\nvalue = [0, 0, 1]\nclass = virginica", fillcolor="#8139e5"] ;
3 -> 5 ;
6 [label="petal length (cm) <= 5.05\ngini = 0.21\nsamples = 33\nvalue = [0, 6, 45]\nclass = virginica", fillcolor="#9253e8"] ;
2 -> 6 ;
7 [label="sepal width (cm) <= 3.05\ngini = 0.46\nsamples = 12\nvalue = [0, 6, 11]\nclass = virginica", fillcolor="#c6a5f3"] ;
6 -> 7 ;
8 [label="petal width (cm) <= 1.75\ngini = 0.34\nsamples = 10\nvalue = [0, 3, 11]\nclass = virginica", fillcolor="#a36fec"] ;
7 -> 8 ;
9 [label="sepal length (cm) <= 6.15\ngini = 0.48\nsamples = 3\nvalue = [0, 3, 2]\nclass = versicolor", fillcolor="#bdf6d5"] ;
8 -> 9 ;
10 [label="gini = 0.0\nsamples = 1\nvalue = [0, 0, 2]\nclass = virginica", fillcolor="#8139e5"] ;
9 -> 10 ;
11 [label="gini = 0.0\nsamples = 2\nvalue = [0, 3, 0]\nclass = versicolor", fillcolor="#39e581"] ;
9 -> 11 ;
12 [label="gini = 0.0\nsamples = 7\nvalue = [0, 0, 9]\nclass = virginica", fillcolor="#8139e5"] ;
8 -> 12 ;
13 [label="gini = 0.0\nsamples = 2\nvalue = [0, 3, 0]\nclass = versicolor", fillcolor="#39e581"] ;
7 -> 13 ;
14 [label="gini = 0.0\nsamples = 21\nvalue = [0, 0, 34]\nclass = virginica", fillcolor="#8139e5"] ;
6 -> 14 ;
}